|--- mean_nwe_ulsfo_crack_trade_month lag3 <= 11.64
|   |--- value: [68.14]
|--- mean_nwe_ulsfo_crack_trade_month lag3 >  11.64
|   |--- new_sweet_sr_margin <= 0.66
|   |   |--- mean_nwe_hsfo_crack_trade_month_lag1 <= -11.56
|   |   |   |--- value: [90.14]
|   |   |--- mean_nwe_hsfo_crack_trade_month_lag1 >  -11.56
|   |   |   |--- new_sweet_sr_margin <= -1.37
|   |   |   |   |--- value: [122.01]
|   |   |   |--- new_sweet_sr_margin >  -1.37
|   |   |   |   |--- value: [131.63]
|   |--- new_sweet_sr_margin >  0.66
|   |   |--- value: [93.54]
